<?xml version="1.0"?>
<opencv_storage>
<cascade>
  <stageType>BOOST</stageType>
  <featureType>HAAR</featureType>
  <height>22</height>
  <width>22</width>
  <stageParams>
    <boostType>GAB</boostType>
    <minHitRate>9.9900001287460327e-01</minHitRate>
    <maxFalseAlarm>3.4999999403953552e-01</maxFalseAlarm>
    <weightTrimRate>9.4999999999999996e-01</weightTrimRate>
    <maxDepth>1</maxDepth>
    <maxWeakCount>100</maxWeakCount></stageParams>
  <featureParams>
    <maxCatCount>0</maxCatCount>
    <featSize>1</featSize>
    <mode>BASIC</mode></featureParams>
  <stageNum>14</stageNum>
  <stages>
    <!-- stage 0 -->
    <_>
      <maxWeakCount>2</maxWeakCount>
      <stageThreshold>-4.4888176023960114e-02</stageThreshold>
      <weakClassifiers>
        <_>
          <internalNodes>
            0 -1 13 2.0274220407009125e-01</internalNodes>
          <leafValues>
            -9.8009949922561646e-01 9.7468352317810059e-01</leafValues></_>
        <_>
          <internalNodes>
            0 -1 23 -8.0744937062263489e-02</internalNodes>
          <leafValues>
            9.3521130084991455e-01 -9.7072678804397583e-01</leafValues></_></weakClassifiers></_>
    <!-- stage 1 -->
    <_>
      <maxWeakCount>2</maxWeakCount>
      <stageThreshold>-3.8305550813674927e-01</stageThreshold>
      <weakClassifiers>
        <_>
          <internalNodes>
            0 -1 30 3.5978476516902447e-03</internalNodes>
          <leafValues>
            -9.6756756305694580e-01 6.2105262279510498e-01</leafValues></_>
        <_>
          <internalNodes>
            0 -1 26 -2.9983771964907646e-03</internalNodes>
          <leafValues>
            -1. 5.8451205492019653e-01</leafValues></_></weakClassifiers></_>
    <!-- stage 2 -->
    <_>
      <maxWeakCount>2</maxWeakCount>
      <stageThreshold>-3.3766862750053406e-01</stageThreshold>
      <weakClassifiers>
        <_>
          <internalNodes>
            0 -1 9 -1.0623393580317497e-02</internalNodes>
          <leafValues>
            6.9999998807907104e-01 -8.7999999523162842e-01</leafValues></_>
        <_>
          <internalNodes>
            0 -1 14 -7.1533545851707458e-02</internalNodes>
          <leafValues>
            5.4233133792877197e-01 -1.</leafValues></_></weakClassifiers></_>
    <!-- stage 3 -->
    <_>
      <maxWeakCount>2</maxWeakCount>
      <stageThreshold>-2.5279175024479628e-03</stageThreshold>
      <weakClassifiers>
        <_>
          <internalNodes>
            0 -1 4 9.4015151262283325e-03</internalNodes>
          <leafValues>
            -9.5999997854232788e-01 8.9999997615814209e-01</leafValues></_>
        <_>
          <internalNodes>
            0 -1 7 7.9506402835249901e-04</internalNodes>
          <leafValues>
            -8.6480450630187988e-01 9.5747208595275879e-01</leafValues></_></weakClassifiers></_>
    <!-- stage 4 -->
    <_>
      <maxWeakCount>2</maxWeakCount>
      <stageThreshold>-1.3705930113792419e-01</stageThreshold>
      <weakClassifiers>
        <_>
          <internalNodes>
            0 -1 15 2.7272151783108711e-02</internalNodes>
          <leafValues>
            -9.0196079015731812e-01 8.4210526943206787e-01</leafValues></_>
        <_>
          <internalNodes>
            0 -1 11 2.4306604266166687e-01</internalNodes>
          <leafValues>
            -9.3205386400222778e-01 7.6490145921707153e-01</leafValues></_></weakClassifiers></_>
    <!-- stage 5 -->
    <_>
      <maxWeakCount>3</maxWeakCount>
      <stageThreshold>-1.1568005084991455e+00</stageThreshold>
      <weakClassifiers>
        <_>
          <internalNodes>
            0 -1 25 -3.7476868601515889e-04</internalNodes>
          <leafValues>
            8.2278478145599365e-01 -9.2039799690246582e-01</leafValues></_>
        <_>
          <internalNodes>
            0 -1 24 -1.3371024280786514e-02</internalNodes>
          <leafValues>
            8.2339340448379517e-01 -8.6379396915435791e-01</leafValues></_>
        <_>
          <internalNodes>
            0 -1 20 -1.0390365123748779e-01</internalNodes>
          <leafValues>
            6.2739151716232300e-01 -9.9022519588470459e-01</leafValues></_></weakClassifiers></_>
    <!-- stage 6 -->
    <_>
      <maxWeakCount>2</maxWeakCount>
      <stageThreshold>-1.4161388576030731e-01</stageThreshold>
      <weakClassifiers>
        <_>
          <internalNodes>
            0 -1 10 -6.8643480539321899e-02</internalNodes>
          <leafValues>
            8.9873415231704712e-01 -9.5024877786636353e-01</leafValues></_>
        <_>
          <internalNodes>
            0 -1 21 -1.0391758987680078e-03</internalNodes>
          <leafValues>
            8.0863487720489502e-01 -8.4389227628707886e-01</leafValues></_></weakClassifiers></_>
    <!-- stage 7 -->
    <_>
      <maxWeakCount>2</maxWeakCount>
      <stageThreshold>-1.8149301409721375e-01</stageThreshold>
      <weakClassifiers>
        <_>
          <internalNodes>
            0 -1 2 7.0542365312576294e-02</internalNodes>
          <leafValues>
            -9.2195123434066772e-01 9.2000001668930054e-01</leafValues></_>
        <_>
          <internalNodes>
            0 -1 18 -3.3705197274684906e-02</internalNodes>
          <leafValues>
            7.4045819044113159e-01 -9.7995394468307495e-01</leafValues></_></weakClassifiers></_>
    <!-- stage 8 -->
    <_>
      <maxWeakCount>2</maxWeakCount>
      <stageThreshold>-1.9039435684680939e-01</stageThreshold>
      <weakClassifiers>
        <_>
          <internalNodes>
            0 -1 19 -1.1057417839765549e-02</internalNodes>
          <leafValues>
            9.7142857313156128e-01 -8.9523810148239136e-01</leafValues></_>
        <_>
          <internalNodes>
            0 -1 12 -1.2767136096954346e-01</internalNodes>
          <leafValues>
            7.0484375953674316e-01 -9.7014796733856201e-01</leafValues></_></weakClassifiers></_>
    <!-- stage 9 -->
    <_>
      <maxWeakCount>3</maxWeakCount>
      <stageThreshold>-8.3893370628356934e-01</stageThreshold>
      <weakClassifiers>
        <_>
          <internalNodes>
            0 -1 1 3.6620251834392548e-02</internalNodes>
          <leafValues>
            -9.2307692766189575e-01 1.</leafValues></_>
        <_>
          <internalNodes>
            0 -1 6 7.5106427539139986e-04</internalNodes>
          <leafValues>
            -8.0641448497772217e-01 9.2027741670608521e-01</leafValues></_>
        <_>
          <internalNodes>
            0 -1 17 8.1834197044372559e-02</internalNodes>
          <leafValues>
            -8.3607864379882813e-01 8.9055770635604858e-01</leafValues></_></weakClassifiers></_>
    <!-- stage 10 -->
    <_>
      <maxWeakCount>3</maxWeakCount>
      <stageThreshold>-1.1921389102935791e+00</stageThreshold>
      <weakClassifiers>
        <_>
          <internalNodes>
            0 -1 8 3.4823291003704071e-02</internalNodes>
          <leafValues>
            -9.4088667631149292e-01 9.2207789421081543e-01</leafValues></_>
        <_>
          <internalNodes>
            0 -1 22 7.1830041706562042e-02</internalNodes>
          <leafValues>
            -8.6862456798553467e-01 8.6925518512725830e-01</leafValues></_>
        <_>
          <internalNodes>
            0 -1 5 5.6940596550703049e-04</internalNodes>
          <leafValues>
            -1. 6.1737239360809326e-01</leafValues></_></weakClassifiers></_>
    <!-- stage 11 -->
    <_>
      <maxWeakCount>2</maxWeakCount>
      <stageThreshold>-1.7672130465507507e-01</stageThreshold>
      <weakClassifiers>
        <_>
          <internalNodes>
            0 -1 3 -5.7873467449098825e-04</internalNodes>
          <leafValues>
            1. -9.7044336795806885e-01</leafValues></_>
        <_>
          <internalNodes>
            0 -1 0 -2.0763207972049713e-01</internalNodes>
          <leafValues>
            7.9372203350067139e-01 -1.</leafValues></_></weakClassifiers></_>
    <!-- stage 12 -->
    <_>
      <maxWeakCount>2</maxWeakCount>
      <stageThreshold>1.6473514959216118e-02</stageThreshold>
      <weakClassifiers>
        <_>
          <internalNodes>
            0 -1 29 3.4521026536822319e-03</internalNodes>
          <leafValues>
            -9.6078431606292725e-01 1.</leafValues></_>
        <_>
          <internalNodes>
            0 -1 28 -5.6206458248198032e-03</internalNodes>
          <leafValues>
            9.7725784778594971e-01 -8.7327963113784790e-01</leafValues></_></weakClassifiers></_>
    <!-- stage 13 -->
    <_>
      <maxWeakCount>2</maxWeakCount>
      <stageThreshold>-1.2878920137882233e-01</stageThreshold>
      <weakClassifiers>
        <_>
          <internalNodes>
            0 -1 27 -1.5783105045557022e-02</internalNodes>
          <leafValues>
            9.4444441795349121e-01 -9.0384614467620850e-01</leafValues></_>
        <_>
          <internalNodes>
            0 -1 16 -1.2355007231235504e-02</internalNodes>
          <leafValues>
            7.7505695819854736e-01 -9.8046541213989258e-01</leafValues></_></weakClassifiers></_></stages>
  <features>
    <_>
      <rects>
        <_>
          0 0 18 9 -1.</_>
        <_>
          0 3 18 3 2.</_></rects>
      <tilted>0</tilted></_>
    <_>
      <rects>
        <_>
          0 4 10 4 -1.</_>
        <_>
          5 4 5 4 2.</_></rects>
      <tilted>0</tilted></_>
    <_>
      <rects>
        <_>
          0 4 12 7 -1.</_>
        <_>
          6 4 6 7 2.</_></rects>
      <tilted>0</tilted></_>
    <_>
      <rects>
        <_>
          0 6 18 6 -1.</_>
        <_>
          0 6 9 3 2.</_>
        <_>
          9 9 9 3 2.</_></rects>
      <tilted>0</tilted></_>
    <_>
      <rects>
        <_>
          0 6 20 2 -1.</_>
        <_>
          10 6 10 2 2.</_></rects>
      <tilted>0</tilted></_>
    <_>
      <rects>
        <_>
          0 6 20 2 -1.</_>
        <_>
          0 7 20 1 2.</_></rects>
      <tilted>0</tilted></_>
    <_>
      <rects>
        <_>
          0 7 1 14 -1.</_>
        <_>
          0 14 1 7 2.</_></rects>
      <tilted>0</tilted></_>
    <_>
      <rects>
        <_>
          0 18 14 1 -1.</_>
        <_>
          7 18 7 1 2.</_></rects>
      <tilted>0</tilted></_>
    <_>
      <rects>
        <_>
          1 4 8 6 -1.</_>
        <_>
          1 7 8 3 2.</_></rects>
      <tilted>0</tilted></_>
    <_>
      <rects>
        <_>
          1 18 8 4 -1.</_>
        <_>
          1 20 8 2 2.</_></rects>
      <tilted>0</tilted></_>
    <_>
      <rects>
        <_>
          2 8 7 14 -1.</_>
        <_>
          2 15 7 7 2.</_></rects>
      <tilted>0</tilted></_>
    <_>
      <rects>
        <_>
          3 0 14 12 -1.</_>
        <_>
          3 6 14 6 2.</_></rects>
      <tilted>0</tilted></_>
    <_>
      <rects>
        <_>
          3 2 10 9 -1.</_>
        <_>
          3 5 10 3 2.</_></rects>
      <tilted>0</tilted></_>
    <_>
      <rects>
        <_>
          4 0 13 12 -1.</_>
        <_>
          4 6 13 6 2.</_></rects>
      <tilted>0</tilted></_>
    <_>
      <rects>
        <_>
          4 9 11 3 -1.</_>
        <_>
          4 10 11 1 2.</_></rects>
      <tilted>0</tilted></_>
    <_>
      <rects>
        <_>
          5 0 10 6 -1.</_>
        <_>
          5 3 10 3 2.</_></rects>
      <tilted>0</tilted></_>
    <_>
      <rects>
        <_>
          5 9 6 8 -1.</_>
        <_>
          5 13 6 4 2.</_></rects>
      <tilted>0</tilted></_>
    <_>
      <rects>
        <_>
          6 0 10 8 -1.</_>
        <_>
          6 4 10 4 2.</_></rects>
      <tilted>0</tilted></_>
    <_>
      <rects>
        <_>
          6 10 6 3 -1.</_>
        <_>
          6 11 6 1 2.</_></rects>
      <tilted>0</tilted></_>
    <_>
      <rects>
        <_>
          6 10 9 4 -1.</_>
        <_>
          6 12 9 2 2.</_></rects>
      <tilted>0</tilted></_>
    <_>
      <rects>
        <_>
          10 8 6 9 -1.</_>
        <_>
          10 11 6 3 2.</_></rects>
      <tilted>0</tilted></_>
    <_>
      <rects>
        <_>
          10 19 12 1 -1.</_>
        <_>
          16 19 6 1 2.</_></rects>
      <tilted>0</tilted></_>
    <_>
      <rects>
        <_>
          11 1 7 8 -1.</_>
        <_>
          11 5 7 4 2.</_></rects>
      <tilted>0</tilted></_>
    <_>
      <rects>
        <_>
          12 4 10 13 -1.</_>
        <_>
          17 4 5 13 2.</_></rects>
      <tilted>0</tilted></_>
    <_>
      <rects>
        <_>
          14 1 8 8 -1.</_>
        <_>
          14 1 4 4 2.</_>
        <_>
          18 5 4 4 2.</_></rects>
      <tilted>0</tilted></_>
    <_>
      <rects>
        <_>
          17 16 2 6 -1.</_>
        <_>
          17 19 2 3 2.</_></rects>
      <tilted>0</tilted></_>
    <_>
      <rects>
        <_>
          19 3 3 1 -1.</_>
        <_>
          20 3 1 1 2.</_></rects>
      <tilted>0</tilted></_>
    <_>
      <rects>
        <_>
          19 5 1 15 -1.</_>
        <_>
          19 10 1 5 2.</_></rects>
      <tilted>0</tilted></_>
    <_>
      <rects>
        <_>
          20 11 1 6 -1.</_>
        <_>
          20 13 1 2 2.</_></rects>
      <tilted>0</tilted></_>
    <_>
      <rects>
        <_>
          21 1 1 18 -1.</_>
        <_>
          21 10 1 9 2.</_></rects>
      <tilted>0</tilted></_>
    <_>
      <rects>
        <_>
          21 6 1 16 -1.</_>
        <_>
          21 14 1 8 2.</_></rects>
      <tilted>0</tilted></_></features></cascade>
</opencv_storage>
